-inf
-inf
-inf
-1.79769e+308
-1.79769e+308
-1.79769e+308
-1.79769e+308
-2.37468e+08
-1.08756e+08
-8.63325e+07
-8.57504e+07
-8.46069e+07
-8.30254e+07
-8.28195e+07
-8.10837e+07
-8.08096e+07
-8.06799e+07
-8.03409e+07
-7.9035e+07
-7.7571e+07
-7.66253e+07
-7.60872e+07
-7.58437e+07
-7.51138e+07
-7.45874e+07
-7.40564e+07
-7.37999e+07
-7.36725e+07
-7.26824e+07
-7.19672e+07
-7.09121e+07
-7.07224e+07
-7.0081e+07
-6.96571e+07
-6.89644e+07
-6.86509e+07
-6.85019e+07
-6.77946e+07
-6.58519e+07
-6.46832e+07
-6.4225e+07
-6.251e+07
-6.20087e+07
-6.01071e+07
-5.7567e+07
-5.7371e+07
-5.72176e+07
-5.65106e+07
-5.54599e+07
-5.49283e+07
-5.4548e+07
-5.43783e+07
-5.36523e+07
-5.23208e+07
-5.17349e+07
-4.97639e+07
-4.95692e+07
-4.9153e+07
-4.85707e+07
-4.79341e+07
-4.7243e+07
-4.67993e+07
-4.46394e+07
-4.4623e+07
-4.42697e+07
-4.39126e+07
-4.28238e+07
-4.27906e+07
-4.24674e+07
-4.18932e+07
-4.05184e+07
-3.96051e+07
-3.95807e+07
-3.8716e+07
-3.838e+07
-3.81388e+07
-3.72387e+07
-3.69974e+07
-3.5114e+07
-3.40106e+07
-3.35682e+07
-3.31184e+07
-3.28324e+07
-3.27816e+07
-3.26663e+07
-3.25818e+07
-3.23753e+07
-2.97432e+07
-2.93645e+07
-2.91619e+07
-2.89215e+07
-2.88897e+07
-2.88857e+07
-2.88602e+07
-2.77814e+07
-2.73404e+07
-2.6269e+07
-2.60258e+07
-2.57351e+07
-2.55443e+07
-2.54976e+07
-2.52309e+07
-2.50862e+07
-2.50345e+07
-2.43109e+07
-2.42029e+07
-2.36843e+07
-2.36261e+07
-2.26442e+07
-2.23055e+07
-2.17477e+07
-2.11793e+07
-2.08045e+07
-1.9753e+07
-1.86839e+07
-1.83532e+07
-1.82541e+07
-1.82054e+07
-1.69703e+07
-1.63478e+07
-1.63012e+07
-1.60626e+07
-1.60472e+07
-1.53343e+07
-1.51503e+07
-1.50918e+07
-1.49617e+07
-1.4702e+07
-1.46766e+07
-1.42918e+07
-1.39983e+07
-1.39736e+07
-1.36386e+07
-1.35662e+07
-1.35384e+07
-1.32756e+07
-1.31787e+07
-1.31754e+07
-1.30514e+07
-1.2453e+07
-1.22564e+07
-1.21494e+07
-1.20076e+07
-1.19758e+07
-1.18536e+07
-1.16469e+07
-1.16048e+07
-1.14927e+07
-1.14779e+07
-1.13711e+07
-1.13114e+07
-1.12215e+07
-1.11855e+07
-1.10418e+07
-1.09288e+07
-1.06992e+07
-1.0461e+07
-1.03955e+07
-1.01976e+07
-1.00829e+07
-1.00081e+07
-9.7708e+06
-9.54976e+06
-9.15368e+06
-9.08157e+06
-9.04266e+06
-8.82361e+06
-8.78565e+06
-8.77183e+06
-8.76844e+06
-8.72798e+06
-8.6953e+06
-8.65201e+06
-7.7319e+06
-7.73029e+06
-7.33944e+06
-7.28603e+06
-7.22587e+06
-7.20902e+06
-7.19293e+06
-7.18712e+06
-6.80167e+06
-6.73595e+06
-6.5304e+06
-6.52514e+06
-6.50315e+06
-6.47749e+06
-6.33635e+06
-6.30327e+06
-6.2206e+06
-6.13545e+06
-6.13387e+06
-5.98168e+06
-5.96003e+06
-5.93388e+06
-5.79548e+06
-5.68207e+06
-5.63162e+06
-5.62964e+06
-5.5653e+06
-5.46926e+06
-5.45385e+06
-5.45326e+06
-5.37445e+06
-5.35312e+06
-5.35073e+06
-5.30196e+06
-5.27316e+06
-5.24436e+06
-5.02251e+06
-4.99329e+06
-4.91071e+06
-4.86957e+06
-4.85941e+06
-4.83546e+06
-4.82347e+06
-4.79307e+06
-4.72382e+06
-4.63301e+06
-4.54784e+06
-4.53181e+06
-4.31258e+06
-4.12949e+06
-4.09983e+06
-3.99328e+06
-3.99323e+06
-3.89429e+06
-3.83302e+06
-3.79784e+06
-3.76931e+06
-3.66384e+06
-3.55431e+06
-3.50823e+06
-3.45593e+06
-3.44406e+06
-3.40303e+06
-3.40225e+06
-3.39775e+06
-3.37998e+06
-3.3481e+06
-3.22428e+06
-3.186e+06
-3.13828e+06
-3.07893e+06
-3.07512e+06
-3.03179e+06
-3.02765e+06
-3.01994e+06
-3.00668e+06
-2.93853e+06
-2.90963e+06
-2.90625e+06
-2.90064e+06
-2.86153e+06
-2.85055e+06
-2.84358e+06
-2.75718e+06
-2.69658e+06
-2.69523e+06
-2.64902e+06
-2.64022e+06
-2.62237e+06
-2.58415e+06
-2.54488e+06
-2.5409e+06
-2.53232e+06
-2.44999e+06
-2.42211e+06
-2.39889e+06
-2.37245e+06
-2.33033e+06
-2.30106e+06
-2.27639e+06
-2.20582e+06
-2.15811e+06
-2.15606e+06
-2.15572e+06
-2.12212e+06
-2.0876e+06
-2.08171e+06
-2.05183e+06
-2.04876e+06
-2.0077e+06
-2.00073e+06
-1.93146e+06
-1.91752e+06
-1.8513e+06
-1.84991e+06
-1.83874e+06
-1.76531e+06
-1.75172e+06
-1.74723e+06
-1.74472e+06
-1.73131e+06
-1.72276e+06
-1.72131e+06
-1.65147e+06
-1.64803e+06
-1.60013e+06
-1.59726e+06
-1.59518e+06
-1.59191e+06
-1.58699e+06
-1.564e+06
-1.55177e+06
-1.54485e+06
-1.53187e+06
-1.50732e+06
-1.47239e+06
-1.46516e+06
-1.46341e+06
-1.44606e+06
-1.44288e+06
-1.43009e+06
-1.41899e+06
-1.39372e+06
-1.38953e+06
-1.38338e+06
-1.38139e+06
-1.3728e+06
-1.36442e+06
-1.35803e+06
-1.3421e+06
-1.34133e+06
-1.3368e+06
-1.26822e+06
-1.25221e+06
-1.22839e+06
-1.22598e+06
-1.19236e+06
-1.17858e+06
-1.13576e+06
-1.13168e+06
-1.12483e+06
-1.12262e+06
-1.10383e+06
-1.09546e+06
-1.06881e+06
-1.06306e+06
-1.04413e+06
-1.02553e+06
-1.0251e+06
-1.02367e+06
-1.01683e+06
-1.01367e+06
-985685
-971363
-958846
-954467
-950494
-917615
-896618
-886694
-874272
-871295
-868537
-865070
-848880
-844503
-843145
-842166
-825487
-814444
-806743
-802905
-778177
-771436
-767031
-767013
-747812
-729956
-716700
-715712
-715283
-713073
-670510
-669509
-664539
-651780
-651287
-648637
-648599
-644662
-639932
-625200
-598537
-595977
-595363
-589894
-585341
-584173
-580991
-568271
-564917
-550564
-542516
-539080
-535896
-535300
-523026
-503126
-500866
-496532
-484570
-481555
-480267
-466521
-453901
-449949
-445005
-439875
-433883
-432104
-423444
-417440
-414464
-412217
-410373
-403767
-399312
-392344
-391735
-391026
-389746
-383271
-381085
-377782
-376652
-374936
-374231
-369184
-366826
-365621
-358807
-358358
-356576
-351061
-350529
-350204
-337405
-336761
-335936
-318458
-315312
-313450
-298499
-297889
-294508
-292197
-282173
-278569
-277477
-277368
-276097
-276068
-271937
-271894
-271410
-266703
-265146
-263869
-246271
-238907
-238565
-235534
-231636
-231016
-225706
-220008
-212586
-196585
-196198
-189497
-189083
-187706
-185187
-181771
-179860
-177113
-175240
-170652
-168315
-165374
-162383
-160322
-157490
-151846
-150756
-149005
-147957
-144185
-142458
-141216
-138413
-137963
-136232
-132428
-132211
-131844
-130595
-129183
-128963
-128944
-128886
-125354
-122892
-122602
-122236
-121532
-121043
-120353
-119709
-119196
-118857
-118083
-117365
-115654
-115547
-114739
-113047
-112014
-111864
-110910
-109685
-107701
-106888
-105393
-105239
-105216
-104861
-104122
-103730
-102787
-102333
-100637
-100140
-98874.9
-98466.5
-96407.6
-95437.5
-95244
-95131
-93887.7
-92059
-90155
-90137.3
-90137.2
-89091.5
-87473.6
-86927.6
-85922.8
-85466
-85168.5
-84725.1
-82913.6
-81578.4
-81324
-80958.6
-77496.7
-77419.6
-77229.9
-76594
-75300.1
-74513.8
-73661.6
-73216.2
-72358.3
-70705.9
-69439.1
-69070.9
-68910.2
-68652.8
-68234.1
-66452.8
-66098.8
-65887.1
-63662.6
-63304
-62908.4
-62154
-62010.1
-61656.9
-59641.3
-58855.8
-58698.8
-57108.2
-56659.7
-56331
-55685
-55412.2
-54994
-54452.8
-51772.9
-51537.1
-51531.8
-51308.8
-50184.3
-49963.5
-49809.6
-49535.3
-48248.3
-47874.9
-47001.9
-45182.3
-44440.9
-44344.6
-43704.4
-43603.5
-42730.5
-42658
-42368.3
-42299.7
-41413.8
-41273.8
-40779.5
-39577.9
-39577.1
-39264.2
-38705.4
-38548.4
-38515.1
-38190
-38153.4
-37338.1
-36947.6
-36638.1
-36196.4
-35657.9
-35128.9
-34732.8
-34170.4
-33928.9
-33876.2
-33672.4
-33006
-32987.3
-32764.6
-32456
-32199.4
-32185.4
-31781.8
-31741.1
-31623.4
-31602.7
-31426
-31228.4
-31088.4
-30911.7
-30737.9
-30644.8
-30580
-29460.4
-29078
-28994.8
-28960
-28937.2
-28775.8
-28751.5
-28461.1
-28218.8
-28197.4
-27359
-27234.8
-27167.3
-27154.4
-26822.4
-26369.7
-26034.5
-25650.9
-24647.3
-24563.7
-24534.7
-24471.4
-24215.3
-24104.3
-23818.7
-23699.7
-23683.4
-23659.3
-23635.9
-23620.8
-23500.5
-23295.7
-23289.2
-23038.8
-22874.7
-22762.7
-22545.5
-22464.5
-22380.8
-22342.9
-22253.4
-22148.6
-22075
-22036.1
-21764.2
-21720.1
-21638.9
-21366.3
-21106.5
-21011.9
-20813.6
-20785.2
-20770.2
-20749.7
-20634.7
-20627.8
-20189.8
-20167.8
-19848.3
-19841.8
-19647.2
-19536.6
-19380.5
-19364.5
-19335.6
-19020.8
-18974.2
-18942.3
-18762.5
-18746.8
-18235.6
-18128
-17736
-17730.8
-17595.7
-17427.2
-17406.4
-17310.2
-17278.6
-17119.5
-16766.2
-16308.8
-16149.2
-16134.3
-15933.9
-15752.5
-15475.5
-15422.9
-15411.5
-15278.4
-15269.4
-15226.3
-15042.4
-14818.8
-14677
-14623.6
-14438
-14338.4
-14291.3
-14196.8
-14122.6
-13990.8
-13913.1
-13797.8
-13559.5
-13400.9
-13290
-13215.1
-12958.2
-12865.1
-12794.3
-12728.7
-12629.3
-12377.5
-12248.9
-12115
-11974.1
-11927.1
-11923.6
-11906.5
-11845.8
-11780.7
-11576.3
-11531.4
-11450.4
-11349.4
-11313.5
-11189.3
-11175.1
-11110.8
-11015.2
-10964.3
-10885.5
-10837.6
-10835.2
-10807.2
-10795
-10754.4
-10749.2
-10726
-10638.3
-10620.3
-10586.4
-10433.4
-10315.6
-10291.8
-10238.6
-10235.5
-10169.6
-10150.8
-10078.3
-10022.2
-9966.1
-9837.08
-9793.29
-9607.28
-9594.03
-9568.46
-9486.96
-9429.98
-9340.57
-9316.96
-9294.63
-9088.59
-9070.2
-9005.36
-8932.07
-8920.16
-8912.74
-8827.98
-8788.76
-8728.03
-8640.44
-8624.71
-8538.55
-8467.47
-8409.2
-8346.51
-8335.69
-8281.07
-8242.64
-8092.34
-8073.72
-8073.25
-8051.13
-7961.62
-7898.27
-7769.08
-7744.93
-7610.4
-7488.29
-7479.68
-7450.18
-7448.73
-7345.91
-7314.92
-7313.65
-7115.8
-6990.38
-6921.73
-6902.51
-6887.8
-6861.2
-6695.79
-6571.7
-6544.16
-6534.74
-6483.68
-6390.23
-6378.88
-6339.02
-6295.98
-6254.28
-6227.63
-6222.22
-6171.47
-6131.41
-6115.94
-6067.07
-6065.03
-5989.83
-5960.79
-5919.53
-5865.01
-5855.69
-5823.61
-5772.03
-5753.67
-5580.54
-5524.33
-5508.17
-5504.9
-5475.06
-5325.37
-5285.24
-5258.44
-5253.31
-5192.56
-5155.6
-5094.79
-5086.4
-5006.2
-4954.81
-4946.04
-4903.75
-4891.13
-4630.05
-4598.51
-4572.53
-4517.09
-4508.42
-4458.15
-4425.95
-4343.79
-4248.16
-4244.27
-4181.67
-4179.37
-4150.14
-4142.33
-4136.57
-4114.88
-4109.77
-3957.88
-3923.12
-3922.15
-3876.67
-3810.79
-3785.57
-3738.51
-3707.86
-3702.07
-3691.88
-3687.27
-3677.75
-3649.09
-3641.72
-3634.81
-3599.7
-3577.64
-3491.4
-3453.72
-3443.62
-3443.52
-3442.62
-3404.75
-3398.57
-3309.75
-3289.31
-3229.42
-3165.21
-3150.23
-3125.25
-3102.86
-3048.57
-3036.4
-3011.7
-2972.46
-2971.54
-2938.99
-2775.7
-2730.1
-2718.95
-2674.2
-2660.42
-2640.7
-2610.85
-2557.73
-2555.23
-2547.99
-2525.72
-2515.23
-2458.84
-2450.01
-2441.64
-2420.13
-2321.12
-2315.38
-2298.74
-2296.28
-2290.71
-2278.18
-2275.49
-2214.62
-2147.8
-2143.12
-2139.04
-2119.36
-2110.37
-2108.22
-2081.21
-2069.82
-2048.23
-2034.2
-2002.2
-1974.99
-1964.5
-1916.18
-1896.1
-1865.27
-1862.48
-1838.25
-1800.49
-1790.43
-1787.51
-1777.29
-1743.39
-1740.88
-1732.48
-1713.64
-1704.05
-1687.61
-1680.62
-1677.34
-1659.13
-1655.72
-1636.44
-1627.17
-1601.6
-1591.42
-1573.44
-1571.56
-1565.77
-1563.5
-1559.43
-1540.57
-1531.99
-1529.82
-1513.87
-1505.77
-1484.25
-1483.22
-1479.94
-1478.51
-1473.31
-1471.28
-1446.61
-1438.32
-1436.36
-1430.56
-1427.5
-1423.98
-1417.51
-1380.7
-1378.33
-1377.12
-1375.87
-1372.56
-1372.49
-1371.18
-1367.9
-1355.26
-1340.88
-1338.71
-1327.16
-1307.66
-1292.02
-1269.67
-1267.75
-1263.49
-1256.14
-1239.35
-1215.25
-1201.25
-1194.03
-1173.5
-1172.17
-1163.27
-1162.04
-1153.05
-1149.75
-1149.44
-1144.95
-1140.35
-1132.54
-1108.08
-1095.15
-1070.67
-1047.79
-1031.45
-1028.98
-1027.13
-1025.36
-1016.44
-1014.43
-1013.75
-1001.77
-993.748
-990.835
-980.203
-970.681
-967.759
-966.709
-965.598
-961.896
-952.173
-951.968
-950.323
-943.484
-936.019
-926.011
-926
-917.334
-917.079
-908.531
-907.489
-905.677
-899.075
-897.618
-875.534
-873.249
-870.65
-867.562
-855.626
-854.87
-854.176
-851.495
-843.512
-841.434
-839.485
-837.108
-835.584
-827.832
-822.764
-813.645
-797.945
-793.758
-791.424
-785.962
-785.157
-765.878
-758.536
-734.76
-726.93
-703.828
-703.259
-685.842
-684.068
-682.527
-680.998
-680.928
-680.477
-648.678
-648.007
-647.559
-647.216
-644.417
-643.709
-639.892
-631.846
-629.273
-627.846
-621.118
-616.929
-614.656
-613.173
-607.652
-607.03
-606.227
-603.348
-600.597
-599.816
-597.202
-594.397
-593.18
-592.709
-592.322
-590.146
-584.441
-584.045
-567.381
-564.643
-531.709
-527.128
-526.726
-524.825
-521.466
-518.293
-515.127
-514.826
-513.959
-513.562
-513.546
-504.187
-502.853
-500.475
-499.795
-498.692
-491.324
-487.709
-480.178
-479.18
-473.813
-463.438
-462.674
-459.473
-456.975
-454.069
-452.894
-445.424
-444.226
-443.875
-442.367
-440.036
-439.782
-438.429
-438.298
-437.646
-424.399
-419.405
-418.473
-418.356
-417.866
-416.792
-405.301
-400.77
-400.205
-397.454
-394.696
-390.24
-389.071
-388.894
-387.832
-387.001
-383.921
-383.723
-381.071
-371.362
-370.786
-367.435
-363.439
-362.736
-358.327
-357.126
-352.577
-344.891
-343.883
-332.719
-332.643
-332.156
-330.541
-328.43
-324.292
-322.762
-318.856
-318.001
-316.984
-314.239
-313.954
-312.744
-301.596
-295.427
-294.968
-292.274
-289.871
-283.425
-281.357
-280.077
-267.23
-266.356
-261.693
-258.758
-253.467
-252.78
-240.7
-239.177
-238.685
-235.48
-231.814
-224.288
-223.083
-214.172
-212.954
-211.439
-210.573
-209.08
-208.724
-196.533
-194.944
-190.705
-187.144
-184.145
-183.41
-181.929
-178.768
-172.569
-172.015
-167.992
-167.205
-165.679
-164.851
-164.629
-161.23
-160.661
-159.938
-158.119
-155.864
-148.57
-147.741
-146.12
-144.059
-141.444
-138.25
-137.645
-137.458
-128.037
-123.145
-116.697
-115.935
-115.718
-114.873
-114.137
-105.996
-105.362
-102.028
-101.423
-97.9069
-86.5061
-86.4916
-86.2596
-85.9213
-85.8736
-83.3073
-82.4362
-80.716
-80.2285
-79.5734
-77.3496
-73.588
-73.0558
-72.3055
-70.395
-66.8299
-65.5918
-63.1676
-62.4274
-58.0264
-57.3428
-53.5152
-51.4188
-51.0757
-50.2558
-46.706
-46.3299
-45.0336
-44.4938
-38.3058
-38.0924
-37.2428
-32.6677
-32.5272
-29.2081
-28.8864
-27.9233
-27.3572
-27.0214
-26.9406
-24.7724
-23.6988
-23.5915
-20.8288
-19.8168
-19.2805
-13.5339
-10.5601
-10.032
-9.98851
-9.28021
-7.77213
-5.51053
-3.19964
-2.56545
-2.55787
-1.94902
-0.955621
0.148637
8.79231
12.6538
13.7057
13.8667
17.863
18.9822
22.2797
23.0982
30.4797
32.0483
33.0396
35.4174
38.8452
39.9195
41.7562
42.7951
44.7123
45.4945
47.6806
53.0067
55.3194
56.169
57.2491
59.6302
60.2642
65.9929
69.6465
70.8135
71.8326
75.5588
76.1276
77.4909
79.6954
79.72
81.2984
82.5479
84.4448
85.0018
86.2257
86.4622
87.8422
90.041
90.7569
94.0515
94.7124
97.2379
97.6531
98.1357
98.672
101.336
104.499
104.863
108.801
108.846
109.048
109.761
112.328
116.459
118.363
120.415
122.394
122.565
123.297
125.893
126.367
127.497
127.515
130.168
130.171
130.883
131
133.272
134.049
136.008
136.064
141.906
143.635
145.066
146.187
146.189
146.764
147.693
148.293
151.713
153.144
154.281
154.3
154.349
154.932
156.483
157.215
157.398
157.663
160.478
160.503
162.25
163.807
163.862
164.289
164.936
164.988
169.477
171.862
172.87
175.337
175.952
177.385
177.429
178.713
180.211
181.325
181.983
183.346
186.492
189.529
189.977
193.45
193.821
194.085
195.549
196.781
197.322
198.933
199.858
200.648
203.141
203.5
203.649
205.241
205.788
207.306
207.589
208.236
207.812
208.943
209.61
210.067
210.645
211.357
211.8
212.187
214.494
214.952
215.223
215.248
215.266
217.009
217.79
218.68
219.461
220.327
220.682
220.876
222.066
222.753
223.03
223.631
224.26
224.495
225.182
225.259
225.7
226.399
226.925
227.289
227.565
227.652
227.912
229.044
230.294
230.423
230.474
231.044
231.315
231.646
232.073
232.213
232.683
234.104
234.711
236.049
236.319
238.324
238.403
238.77
240.302
240.689
240.982
242.466
243.441
244.505
244.67
244.908
245.729
246.068
246.684
246.959
247.307
247.442
247.639
247.804
247.857
248.153
248.236
248.479
248.587
248.899
248.973
249.394
252.391
252.69
252.839
253.17
253.178
253.613
253.726
254.477
255.2
255.241
255.342
255.907
256.411
256.704
258.076
258.178
258.579
259.782
260.786
262.369
262.812
262.824
263.167
263.358
263.403
264.142
264.23
264.278
264.631
265.606
265.755
266.188
266.436
266.478
266.771
266.949
267.159
267.303
267.519
267.895
268.056
268.266
268.607
268.845
269.171
269.253
269.351
270.185
271.653
272.149
272.196
272.438
273.197
273.525
273.857
274.279
275.749
275.898
276.1
276.256
277.623
278.179
278.457
278.519
278.614
278.95
279.151
279.469
280.008
280.262
280.344
280.715
280.758
280.861
281.071
281.406
282.207
282.313
282.373
282.671
283.021
283.372
283.545
284.393
284.456
284.6
285.489
285.794
286.52
286.621
287.079
287.688
288.168
288.195
289.318
289.417
289.671
289.939
289.954
290.22
290.702
290.731
290.892
291.382
291.877
292.002
292.325
292.493
292.615
292.872
292.92
293.087
293.434
294.077
294.411
294.551
294.566
294.818
296.126
296.154
296.359
297.575
297.784
298.21
298.267
298.998
299.717
300.12
300.681
300.695
301.189
301.209
301.859
302.494
302.829
304.018
304.439
305.747
306.209
306.331
306.59
306.831
307.074
307.618
307.668
308.315
308.331
308.575
309.187
310.406
310.791
311.067
311.164
311.691
311.859
312.288
312.624
312.831
312.933
313.201
313.272
313.541
313.597
314.066
314.424
314.473
314.525
314.711
315.285
315.65
315.72
315.915
316.221
316.791
316.994
316.996
317.237
317.668
317.724
317.749
317.821
318.875
320.533
320.689
321.166
321.429
322.05
322.055
322.077
322.278
322.356
322.425
322.491
322.662
322.756
322.767
322.831
322.908
323.556
323.715
324.078
324.378
324.7
324.716
325.196
325.26
325.358
325.416
325.52
326.032
326.079
326.587
326.589
326.7
326.918
326.929
327.025
327.153
327.395
327.547
327.893
327.951
328.313
328.396
328.515
328.538
328.688
328.943
329.053
329.172
329.195
329.481
329.643
329.674
330.139
330.18
330.586
330.921
331.394
331.498
331.705
331.951
332.548
332.794
333.881
333.995
334.524
334.636
334.742
334.983
335.064
335.073
335.267
335.304
335.492
335.524
335.558
335.85
336.012
336.237
336.789
337.11
337.208
337.402
337.649
337.836
337.875
338.039
338.11
338.243
339.025
339.103
339.198
339.35
339.482
339.624
339.792
340.338
340.412
340.65
340.663
340.742
340.744
340.877
341.023
341.156
341.328
341.564
341.845
342.042
342.142
342.182
342.203
342.225
342.292
342.372
342.382
342.416
342.525
342.633
342.639
342.717
342.721
342.727
342.848
343.098
343.1
343.172
343.203
343.317
343.324
343.37
343.44
343.468
343.507
343.598
343.614
343.697
343.778
343.789
344.092
344.333
344.387
344.466
344.516
344.527
344.552
344.64
344.707
344.71
344.747
344.763
344.804
344.853
344.93
345
345.066
345.173
345.178
345.185
345.202
345.222
345.229
345.284
345.294
345.374
345.714
345.767
345.874
345.904
345.956
346.019
346.065
346.3
346.345
346.395
346.45
346.481
346.497
346.567
346.678
346.692
346.721
346.855
346.869
347.154
347.219
347.423
347.429
347.439
347.517
347.6
347.654
347.695
347.972
348.038
348.083
348.18
348.182
348.186
348.284
348.296
348.586
348.65
348.679
348.707
348.779
348.846
348.972
349.126
349.128
349.158
349.246
349.257
349.276
349.351
349.388
349.417
349.605
349.623
349.627
349.653
349.668
349.718
349.783
349.803
349.964
350.04
350.084
350.151
350.246
350.265
350.285
350.322
350.48
350.489
350.529
350.531
350.532
350.546
350.591
350.679
350.692
350.718
350.03
350.045
350.068
350.2
350.205
350.278
350.466
350.532
350.566
350.632
350.658
350.666
350.688
350.701
350.727
350.735
350.762
350.765
350.967
351.021
351.025
351.052
351.078
351.087
351.133
351.167
351.188
351.223
351.3
351.432
351.463
351.59
351.603
351.63
351.673
351.692
351.717
351.721
351.82
351.852
351.856
351.868
351.925
351.966
351.968
351.977
351.978
352.003
352.086
352.122
352.129
352.151
352.156
352.222
352.295
352.298
352.299
352.306
352.357
352.38
352.453
352.465
352.505
352.519
352.52
352.556
352.585
352.619
352.658
352.688
352.706
352.759
352.773
352.784
352.793
352.827
352.848
352.855
352.867
352.877
352.884
352.895
352.947
352.956
352.963
352.98
353.003
353.008
353.01
353.047
353.101
353.106
353.148
353.195
353.197
353.219
353.244
353.301
353.385
353.43
353.497
353.518
353.528
353.533
353.567
353.606
353.65
353.651
353.704
353.742
353.78
353.869
353.875
353.875
353.88
353.891
353.893
353.907
353.92
353.927
353.95
353.972
353.997
354.057
354.14
354.166
354.17
354.209
354.236
354.268
354.287
354.349
354.364
354.444
354.447
354.56
354.584
354.634
354.657
354.663
354.671
354.673
354.695
354.699
354.711
354.726
354.727
354.734
354.744
354.818
354.828
354.838
354.842
354.854
354.861
354.872
354.876
354.895
354.928
354.95
354.986
355.039
355.078
355.091
355.123
355.181
355.192
355.236
355.258
355.279
355.293
355.352
355.354
355.366
355.45
355.454
355.47
355.489
355.517
355.534
355.617
355.625
355.658
355.694
355.697
355.774
355.784
355.79
355.832
355.854
355.868
355.873
355.931
355.938
355.975
355.977
356.05
356.065
356.071
356.098
356.101
356.108
356.129
356.191
356.195
356.256
356.264
356.285
356.3
356.345
356.355
356.375
356.382
356.388
356.397
356.438
356.448
356.45
356.49
356.516
356.535
356.546
356.61
356.617
356.635
356.653
356.659
356.667
356.687
356.721
356.725
356.746
356.767
356.792
356.795
356.8
356.803
356.808
356.858
356.882
356.886
356.898
356.968
356.989
357.016
357.05
357.083
357.11
357.195
357.222
357.225
357.231
357.355
357.355
357.389
357.424
357.424
357.434
357.437
357.438
357.473
357.578
357.611
357.653
357.66
357.701
357.704
357.714
357.745
357.786
357.813
357.836
357.853
357.861
357.876
357.894
357.923
357.932
357.948
357.948
357.974
357.976
357.989
358.038
358.045
358.048
358.049
358.055
358.076
358.098
358.136
358.139
358.153
358.164
358.173
358.202
358.214
358.244
358.284
358.319
358.327
358.332
358.35
358.363
358.367
358.375
358.384
358.414
358.435
358.449
358.469
358.473
358.478
358.531
358.531
358.554
358.56
358.567
358.571
358.592
358.593
358.625
358.638
358.683
358.692
358.692
358.693
358.693
358.71
358.714
358.742
358.765
358.766
358.786
358.815
358.901
358.904
358.94
358.949
358.961
358.968
358.971
358.978
359.002
359.029
359.039
359.044
359.068
359.073
359.087
359.089
359.121
359.131
359.139
359.208
359.268
359.28
359.308
359.356
359.393
359.394
359.402
359.417
359.444
359.466
359.495
359.512
359.531
359.549
359.572
359.581
359.592
359.606
359.642
359.666
359.691
359.7
359.731
359.734
359.811
359.812
359.849
359.864
359.881
359.885
359.888
359.895
359.907
359.909
359.913
359.916
359.944
360.037
360.047
360.052
360.085
360.094
360.105
360.105
360.109
360.113
360.143
360.148
360.165
360.18
360.213
360.219
360.235
360.246
360.298
360.301
360.317
360.349
360.349
360.35
360.381
360.411
360.417
360.428
360.429
360.454
360.462
360.466
360.47
360.57
360.579
360.584
360.602
360.629
360.637
360.641
360.651
360.669
360.673
360.678
360.68
360.694
360.699
360.707
360.714
360.727
360.738
360.74
360.754
360.762
360.766
360.781
360.829
360.833
360.833
360.86
360.879
360.881
360.941
360.954
360.963
360.983
361.008
361.02
361.031
361.032
361.046
361.069
361.084
361.105
361.11
361.167
361.171
361.188
361.202
361.203
361.204
361.205
361.224
361.225
361.255
361.258
361.301
361.304
361.333
361.353
361.368
361.377
361.388
361.39
361.408
361.452
361.453
361.463
361.466
361.468
361.488
361.514
361.528
361.568
361.576
361.579
361.609
361.613
361.619
361.625
361.63
361.637
361.644
361.646
361.679
361.7
361.705
361.713
361.73
361.765
361.767
361.786
361.82
361.822
361.857
361.865
361.865
361.88
361.898
361.904
361.905
361.905
361.913
361.915
361.922
361.926
361.935
361.938
361.943
361.95
361.961
361.963
361.967
361.97
361.981
361.996
362.017
362.029
362.042
362.046
362.107
362.113
362.123
362.132
362.145
362.167
362.174
362.186
362.202
362.212
362.213
362.218
362.235
362.26
362.269
362.273
362.291
362.309
362.337
362.391
362.397
362.416
362.424
362.427
362.44
362.457
362.505
362.508
362.525
362.546
362.555
362.555
362.57
362.572
362.575
362.581
362.601
362.613
362.619
362.625
362.631
362.632
362.641
362.652
362.695
362.742
362.745
362.749
362.761
362.767
362.771
362.799
362.803
362.823
362.827
362.834
362.837
362.846
362.856
362.89
362.913
362.92
362.927
362.938
362.959
362.988
362.991
362.993
363.001
363.01
363.031
363.058
363.061
363.067
363.08
363.08
363.133
363.15
363.159
363.17
363.182
363.192
363.197
363.199
363.212
363.217
363.22
363.226
363.233
363.24
363.267
363.276
363.284
363.292
363.294
363.31
363.317
363.317
363.325
363.326
363.331
363.334
363.368
363.374
363.376
363.38
363.382
363.4
363.404
363.404
363.429
363.459
363.461
363.469
363.479
363.528
363.534
363.543
363.547
363.552
363.555
363.556
363.565
363.566
363.57
363.573
363.596
363.598
363.6
363.632
363.635
363.641
363.69
363.693
363.694
363.699
363.701
363.732
363.763
363.769
363.787
363.79
363.802
363.807
363.82
363.823
363.836
363.841
363.842
363.853
363.875
363.883
363.898
363.899
363.903
363.932
363.94
363.95
363.952
363.965
363.967
363.976
363.978
363.993
364.003
364.014
364.015
364.022
364.023
364.049
364.058
364.062
364.062
364.075
364.075
364.079
364.08
364.084
364.099
364.107
364.111
364.113
364.114
364.118
364.121
364.126
364.134
364.136
364.137
364.139
364.139
364.153
364.167
364.175
364.196
364.203
364.23
364.244
364.249
364.251
364.273
364.281
364.313
364.314
364.319
364.32
364.329
364.33
364.342
364.344
364.349
364.356
364.361
364.372
364.376
364.393
364.396
364.398
364.403
364.407
364.408
364.426
364.43
364.431
364.432
364.438
364.444
364.445
364.447
364.463
364.471
364.48
364.492
364.493
364.497
364.501
364.514
364.526
364.526
364.527
364.529
364.532
364.536
364.548
364.549
364.551
364.558
364.561
364.575
364.576
364.577
364.578
364.582
364.587
364.59
364.591
364.592
364.595
364.597
364.6
364.602
364.602
364.607
364.609
364.615
364.615
364.615
364.619
364.623
364.623
364.632
364.637
364.638
364.638
364.641
364.643
364.643
364.65
364.66
364.666
364.69
364.69
364.692
364.697
364.699
364.7
364.701
364.706
364.706
364.706
364.709
364.71
364.716
364.718
364.72
364.72
364.722
364.726
364.731
364.737
364.746
364.746
364.748
364.748
364.749
364.753
364.755
364.757
364.761
364.764
364.771
364.777
364.777
364.781
364.784
364.788
364.789
364.797
364.806
364.81
364.813
364.818
364.821
364.822
364.825
364.825
364.826
364.832
364.835
364.839
364.841
364.843
364.843
364.849
364.852
364.855
364.856
364.858
364.863
364.867
364.87
364.873
364.875
364.877
364.881
364.89
364.89
364.891
364.892
364.894
364.896
364.896
364.901
364.904
364.907
364.908
364.915
364.915
364.916
364.92
364.924
364.924
364.928
364.931
364.931
364.934
364.935
364.936
364.939
364.94
364.941
364.942
364.944
364.947
364.947
364.952
364.953
364.954
364.955
364.956
364.956
364.957
364.957
364.958
364.958
364.959
364.962
364.963
364.964
364.964
364.965
364.965
364.965
364.966
364.967
364.967
364.967
364.967
364.967
364.967
364.968
364.968
364.968
364.969
364.97
364.971
364.971
364.971
364.971
364.972
364.972
364.973
364.978
364.983
365.041
365.054
365.098
366.074
366.286
366.873
368.745
370.244
370.621
371.237
371.462
372.31
373.21
374.686
374.93
375.363
380.334
380.776
382.274
382.583
382.782
383.245
383.826
384.891
388.93
394.753
395.581
395.997
397.076
398.732
399.106
400.57
402.363
405.67
419.707
422.493
424.204
433.982
444.022
448.38
456.261
462.615
487.966
496.589
608.578
